<?xml version="1.0"?>
<opencv_storage>
<cascade>
  <stageType>BOOST</stageType>
  <featureType>HAAR</featureType>
  <height>20</height>
  <width>20</width>
  <stageParams>
    <boostType>GAB</boostType>
    <minHitRate>9.9500000476837158e-01</minHitRate>
    <maxFalseAlarm>5.0000000000000000e-01</maxFalseAlarm>
    <weightTrimRate>9.4999999999999996e-01</weightTrimRate>
    <maxDepth>1</maxDepth>
    <maxWeakCount>100</maxWeakCount></stageParams>
  <featureParams>
    <maxCatCount>0</maxCatCount>
    <featSize>1</featSize>
    <mode>BASIC</mode></featureParams>
  <stageNum>9</stageNum>
  <stages>
    <!-- stage 0 -->
    <_>
      <maxWeakCount>4</maxWeakCount>
      <stageThreshold>-3.5462179780006409e-01</stageThreshold>
      <weakClassifiers>
        <_>
          <internalNodes>
            0 -1 17 -1.0471703484654427e-02</internalNodes>
          <leafValues>
            7.2292685508728027e-01 -8.9538460969924927e-01</leafValues></_>
        <_>
          <internalNodes>
            0 -1 58 -6.5322495065629482e-03</internalNodes>
          <leafValues>
            4.9258679151535034e-01 -9.2511671781539917e-01</leafValues></_>
        <_>
          <internalNodes>
            0 -1 0 3.9979442954063416e-02</internalNodes>
          <leafValues>
            -4.0266156196594238e-01 8.0566066503524780e-01</leafValues></_>
        <_>
          <internalNodes>
            0 -1 33 -1.2774058268405497e-04</internalNodes>
          <leafValues>
            4.5083758234977722e-01 -6.9419932365417480e-01</leafValues></_></weakClassifiers></_>
    <!-- stage 1 -->
    <_>
      <maxWeakCount>5</maxWeakCount>
      <stageThreshold>-1.0064692497253418e+00</stageThreshold>
      <weakClassifiers>
        <_>
          <internalNodes>
            0 -1 54 1.1265426874160767e-02</internalNodes>
          <leafValues>
            -6.0824739933013916e-01 7.1309769153594971e-01</leafValues></_>
        <_>
          <internalNodes>
            0 -1 36 3.8655737880617380e-03</internalNodes>
          <leafValues>
            -6.8767833709716797e-01 4.5738771557807922e-01</leafValues></_>
        <_>
          <internalNodes>
            0 -1 10 -1.9048810936510563e-03</internalNodes>
          <leafValues>
            2.7151572704315186e-01 -9.5418614149093628e-01</leafValues></_>
        <_>
          <internalNodes>
            0 -1 35 -3.2959710806608200e-02</internalNodes>
          <leafValues>
            1.8233019113540649e-01 -9.1434890031814575e-01</leafValues></_>
        <_>
          <internalNodes>
            0 -1 5 2.4185411166399717e-03</internalNodes>
          <leafValues>
            -3.8905546069145203e-01 6.0759478807449341e-01</leafValues></_></weakClassifiers></_>
    <!-- stage 2 -->
    <_>
      <maxWeakCount>7</maxWeakCount>
      <stageThreshold>-6.4649909734725952e-01</stageThreshold>
      <weakClassifiers>
        <_>
          <internalNodes>
            0 -1 42 -2.2514290176331997e-03</internalNodes>
          <leafValues>
            5.7472324371337891e-01 -6.5037596225738525e-01</leafValues></_>
        <_>
          <internalNodes>
            0 -1 65 -1.0125993285328150e-03</internalNodes>
          <leafValues>
            4.3733331561088562e-01 -4.8674422502517700e-01</leafValues></_>
        <_>
          <internalNodes>
            0 -1 20 1.8017122149467468e-01</internalNodes>
          <leafValues>
            -2.8905579447746277e-01 7.2378474473953247e-01</leafValues></_>
        <_>
          <internalNodes>
            0 -1 34 -8.7185949087142944e-03</internalNodes>
          <leafValues>
            -7.1622282266616821e-01 2.5502285361289978e-01</leafValues></_>
        <_>
          <internalNodes>
            0 -1 8 3.6068838089704514e-03</internalNodes>
          <leafValues>
            1.7964321374893188e-01 -9.4863009452819824e-01</leafValues></_>
        <_>
          <internalNodes>
            0 -1 63 -1.7037971410900354e-03</internalNodes>
          <leafValues>
            1.4636914432048798e-01 -8.8536530733108521e-01</leafValues></_>
        <_>
          <internalNodes>
            0 -1 52 -2.1876627579331398e-04</internalNodes>
          <leafValues>
            1.9864165782928467e-01 -6.8703460693359375e-01</leafValues></_></weakClassifiers></_>
    <!-- stage 3 -->
    <_>
      <maxWeakCount>8</maxWeakCount>
      <stageThreshold>-1.1595981121063232e+00</stageThreshold>
      <weakClassifiers>
        <_>
          <internalNodes>
            0 -1 61 1.0144157567992806e-04</internalNodes>
          <leafValues>
            -6.2850970029830933e-01 5.3240948915481567e-01</leafValues></_>
        <_>
          <internalNodes>
            0 -1 24 -2.7302792295813560e-03</internalNodes>
          <leafValues>
            3.8324078917503357e-01 -5.5123871564865112e-01</leafValues></_>
        <_>
          <internalNodes>
            0 -1 47 4.7024345258250833e-04</internalNodes>
          <leafValues>
            2.6027542352676392e-01 -8.4810650348663330e-01</leafValues></_>
        <_>
          <internalNodes>
            0 -1 3 3.5465516149997711e-02</internalNodes>
          <leafValues>
            -4.1170832514762878e-01 4.9949762225151062e-01</leafValues></_>
        <_>
          <internalNodes>
            0 -1 18 -2.8798520565032959e-02</internalNodes>
          <leafValues>
            2.1875862777233124e-01 -8.7830990552902222e-01</leafValues></_>
        <_>
          <internalNodes>
            0 -1 47 -7.6129124499857426e-04</internalNodes>
          <leafValues>
            -8.5642063617706299e-01 1.7714680731296539e-01</leafValues></_>
        <_>
          <internalNodes>
            0 -1 66 -4.9144041258841753e-04</internalNodes>
          <leafValues>
            2.4523888528347015e-01 -5.7790732383728027e-01</leafValues></_>
        <_>
          <internalNodes>
            0 -1 33 -1.4375444152392447e-04</internalNodes>
          <leafValues>
            2.6888206601142883e-01 -6.1015814542770386e-01</leafValues></_></weakClassifiers></_>
    <!-- stage 4 -->
    <_>
      <maxWeakCount>8</maxWeakCount>
      <stageThreshold>-8.1914234161376953e-01</stageThreshold>
      <weakClassifiers>
        <_>
          <internalNodes>
            0 -1 7 -3.3048674464225769e-02</internalNodes>
          <leafValues>
            -8.2132565975189209e-01 5.0361239910125732e-01</leafValues></_>
        <_>
          <internalNodes>
            0 -1 43 2.1158121526241302e-02</internalNodes>
          <leafValues>
            -2.5414964556694031e-01 6.8569546937942505e-01</leafValues></_>
        <_>
          <internalNodes>
            0 -1 26 -4.0306746959686279e-03</internalNodes>
          <leafValues>
            2.6358079910278320e-01 -6.8666166067123413e-01</leafValues></_>
        <_>
          <internalNodes>
            0 -1 29 -5.8985795476473868e-05</internalNodes>
          <leafValues>
            2.7600011229515076e-01 -5.5026745796203613e-01</leafValues></_>
        <_>
          <internalNodes>
            0 -1 31 -1.6190823167562485e-02</internalNodes>
          <leafValues>
            -7.6711076498031616e-01 1.7302027344703674e-01</leafValues></_>
        <_>
          <internalNodes>
            0 -1 38 -2.6921359822154045e-03</internalNodes>
          <leafValues>
            4.1077762842178345e-01 -3.4843847155570984e-01</leafValues></_>
        <_>
          <internalNodes>
            0 -1 57 1.6604855773039162e-05</internalNodes>
          <leafValues>
            2.5793811678886414e-01 -5.7652139663696289e-01</leafValues></_>
        <_>
          <internalNodes>
            0 -1 57 -4.5773174497298896e-04</internalNodes>
          <leafValues>
            -8.6443841457366943e-01 1.8812532722949982e-01</leafValues></_></weakClassifiers></_>
    <!-- stage 5 -->
    <_>
      <maxWeakCount>10</maxWeakCount>
      <stageThreshold>-9.1273373365402222e-01</stageThreshold>
      <weakClassifiers>
        <_>
          <internalNodes>
            0 -1 14 -2.6959262322634459e-03</internalNodes>
          <leafValues>
            5.0430291891098022e-01 -7.2340422868728638e-01</leafValues></_>
        <_>
          <internalNodes>
            0 -1 41 -4.4853510189568624e-05</internalNodes>
          <leafValues>
            2.8929910063743591e-01 -6.0822182893753052e-01</leafValues></_>
        <_>
          <internalNodes>
            0 -1 46 -4.2722205398604274e-04</internalNodes>
          <leafValues>
            -8.7748092412948608e-01 2.4193124473094940e-01</leafValues></_>
        <_>
          <internalNodes>
            0 -1 69 -8.4401182830333710e-03</internalNodes>
          <leafValues>
            6.9395697116851807e-01 -2.7195581793785095e-01</leafValues></_>
        <_>
          <internalNodes>
            0 -1 32 -8.0745702143758535e-04</internalNodes>
          <leafValues>
            3.1470805406570435e-01 -4.7430813312530518e-01</leafValues></_>
        <_>
          <internalNodes>
            0 -1 40 -7.2944612475112081e-04</internalNodes>
          <leafValues>
            -8.7861853837966919e-01 1.3318794965744019e-01</leafValues></_>
        <_>
          <internalNodes>
            0 -1 60 -2.4628706742078066e-03</internalNodes>
          <leafValues>
            4.1726860404014587e-01 -3.5924109816551208e-01</leafValues></_>
        <_>
          <internalNodes>
            0 -1 51 1.9280690466985106e-03</internalNodes>
          <leafValues>
            1.8884047865867615e-01 -9.4605958461761475e-01</leafValues></_>
        <_>
          <internalNodes>
            0 -1 30 2.3006994277238846e-02</internalNodes>
          <leafValues>
            1.5438480675220490e-01 -7.7773147821426392e-01</leafValues></_>
        <_>
          <internalNodes>
            0 -1 59 -4.0343720465898514e-03</internalNodes>
          <leafValues>
            -7.8357267379760742e-01 1.3132224977016449e-01</leafValues></_></weakClassifiers></_>
    <!-- stage 6 -->
    <_>
      <maxWeakCount>10</maxWeakCount>
      <stageThreshold>-8.7692016363143921e-01</stageThreshold>
      <weakClassifiers>
        <_>
          <internalNodes>
            0 -1 49 2.2404224728234112e-04</internalNodes>
          <leafValues>
            -2.4085749685764313e-01 5.7210278511047363e-01</leafValues></_>
        <_>
          <internalNodes>
            0 -1 21 1.2247277423739433e-02</internalNodes>
          <leafValues>
            -2.3493865132331848e-01 6.4524090290069580e-01</leafValues></_>
        <_>
          <internalNodes>
            0 -1 46 1.7219535948242992e-05</internalNodes>
          <leafValues>
            2.2926576435565948e-01 -6.5161430835723877e-01</leafValues></_>
        <_>
          <internalNodes>
            0 -1 40 4.5075753587298095e-04</internalNodes>
          <leafValues>
            1.7011018097400665e-01 -7.7773672342300415e-01</leafValues></_>
        <_>
          <internalNodes>
            0 -1 1 8.3398194983601570e-03</internalNodes>
          <leafValues>
            -3.1542646884918213e-01 4.8940095305442810e-01</leafValues></_>
        <_>
          <internalNodes>
            0 -1 4 -2.5602900423109531e-03</internalNodes>
          <leafValues>
            4.3328058719635010e-01 -3.5560774803161621e-01</leafValues></_>
        <_>
          <internalNodes>
            0 -1 68 7.6824938878417015e-04</internalNodes>
          <leafValues>
            -4.5372864603996277e-01 3.0969911813735962e-01</leafValues></_>
        <_>
          <internalNodes>
            0 -1 15 1.7588038463145494e-04</internalNodes>
          <leafValues>
            2.6729291677474976e-01 -5.9506434202194214e-01</leafValues></_>
        <_>
          <internalNodes>
            0 -1 22 -1.4726212248206139e-02</internalNodes>
          <leafValues>
            1.3626007735729218e-01 -9.4270759820938110e-01</leafValues></_>
        <_>
          <internalNodes>
            0 -1 44 -2.0444400608539581e-02</internalNodes>
          <leafValues>
            -8.9225035905838013e-01 1.1449778825044632e-01</leafValues></_></weakClassifiers></_>
    <!-- stage 7 -->
    <_>
      <maxWeakCount>11</maxWeakCount>
      <stageThreshold>-9.4989961385726929e-01</stageThreshold>
      <weakClassifiers>
        <_>
          <internalNodes>
            0 -1 13 1.0541042312979698e-02</internalNodes>
          <leafValues>
            4.6895971894264221e-01 -6.8987339735031128e-01</leafValues></_>
        <_>
          <internalNodes>
            0 -1 9 2.3157070390880108e-03</internalNodes>
          <leafValues>
            -3.4094965457916260e-01 5.0399303436279297e-01</leafValues></_>
        <_>
          <internalNodes>
            0 -1 6 -2.0157886669039726e-02</internalNodes>
          <leafValues>
            6.2566632032394409e-01 -2.3194880783557892e-01</leafValues></_>
        <_>
          <internalNodes>
            0 -1 56 -6.2390201492235065e-05</internalNodes>
          <leafValues>
            2.6350086927413940e-01 -5.5588805675506592e-01</leafValues></_>
        <_>
          <internalNodes>
            0 -1 55 -2.1823236602358520e-04</internalNodes>
          <leafValues>
            -7.9873758554458618e-01 1.6106410324573517e-01</leafValues></_>
        <_>
          <internalNodes>
            0 -1 50 -4.0518622845411301e-03</internalNodes>
          <leafValues>
            2.5009846687316895e-01 -5.6879508495330811e-01</leafValues></_>
        <_>
          <internalNodes>
            0 -1 28 -1.3899251818656921e-02</internalNodes>
          <leafValues>
            5.3375893831253052e-01 -2.6096579432487488e-01</leafValues></_>
        <_>
          <internalNodes>
            0 -1 64 -1.0050006676465273e-03</internalNodes>
          <leafValues>
            3.2160425186157227e-01 -4.0959975123405457e-01</leafValues></_>
        <_>
          <internalNodes>
            0 -1 23 -6.6666589118540287e-03</internalNodes>
          <leafValues>
            5.7645231485366821e-01 -2.6447200775146484e-01</leafValues></_>
        <_>
          <internalNodes>
            0 -1 16 -4.0487743914127350e-02</internalNodes>
          <leafValues>
            -7.6148349046707153e-01 2.0502179861068726e-01</leafValues></_>
        <_>
          <internalNodes>
            0 -1 37 -1.0253149084746838e-03</internalNodes>
          <leafValues>
            2.6358625292778015e-01 -4.3474808335304260e-01</leafValues></_></weakClassifiers></_>
    <!-- stage 8 -->
    <_>
      <maxWeakCount>12</maxWeakCount>
      <stageThreshold>-9.4746297597885132e-01</stageThreshold>
      <weakClassifiers>
        <_>
          <internalNodes>
            0 -1 62 -5.2277778740972281e-04</internalNodes>
          <leafValues>
            -6.6467064619064331e-01 4.7421810030937195e-01</leafValues></_>
        <_>
          <internalNodes>
            0 -1 19 -5.9435479342937469e-03</internalNodes>
          <leafValues>
            -7.1789652109146118e-01 1.9365958869457245e-01</leafValues></_>
        <_>
          <internalNodes>
            0 -1 48 8.6917687440291047e-05</internalNodes>
          <leafValues>
            -5.1312035322189331e-01 2.3263275623321533e-01</leafValues></_>
        <_>
          <internalNodes>
            0 -1 39 2.0367568358778954e-03</internalNodes>
          <leafValues>
            -4.6697992086410522e-01 2.9167518019676208e-01</leafValues></_>
        <_>
          <internalNodes>
            0 -1 2 3.1505018472671509e-02</internalNodes>
          <leafValues>
            -3.5248485207557678e-01 4.0914630889892578e-01</leafValues></_>
        <_>
          <internalNodes>
            0 -1 45 -5.9532401792239398e-05</internalNodes>
          <leafValues>
            2.1204119920730591e-01 -5.5766642093658447e-01</leafValues></_>
        <_>
          <internalNodes>
            0 -1 67 1.2966168578714132e-03</internalNodes>
          <leafValues>
            -3.5943189263343811e-01 3.1909939646720886e-01</leafValues></_>
        <_>
          <internalNodes>
            0 -1 53 3.5864626988768578e-04</internalNodes>
          <leafValues>
            2.2514647245407104e-01 -6.2951821088790894e-01</leafValues></_>
        <_>
          <internalNodes>
            0 -1 27 -4.0126038948073983e-04</internalNodes>
          <leafValues>
            2.6222741603851318e-01 -4.6122598648071289e-01</leafValues></_>
        <_>
          <internalNodes>
            0 -1 25 -2.0009090658277273e-03</internalNodes>
          <leafValues>
            3.5004553198814392e-01 -3.2961225509643555e-01</leafValues></_>
        <_>
          <internalNodes>
            0 -1 12 1.8317124340683222e-03</internalNodes>
          <leafValues>
            1.9292515516281128e-01 -7.1263933181762695e-01</leafValues></_>
        <_>
          <internalNodes>
            0 -1 11 1.6709350747987628e-03</internalNodes>
          <leafValues>
            -3.1104463338851929e-01 3.6132287979125977e-01</leafValues></_></weakClassifiers></_></stages>
  <features>
    <_>
      <rects>
        <_>
          0 3 4 14 -1.</_>
        <_>
          2 3 2 14 2.</_></rects>
      <tilted>0</tilted></_>
    <_>
      <rects>
        <_>
          0 5 2 9 -1.</_>
        <_>
          1 5 1 9 2.</_></rects>
      <tilted>0</tilted></_>
    <_>
      <rects>
        <_>
          0 5 4 9 -1.</_>
        <_>
          2 5 2 9 2.</_></rects>
      <tilted>0</tilted></_>
    <_>
      <rects>
        <_>
          0 6 4 11 -1.</_>
        <_>
          2 6 2 11 2.</_></rects>
      <tilted>0</tilted></_>
    <_>
      <rects>
        <_>
          0 9 3 3 -1.</_>
        <_>
          1 9 1 3 3.</_></rects>
      <tilted>0</tilted></_>
    <_>
      <rects>
        <_>
          1 9 2 2 -1.</_>
        <_>
          2 9 1 2 2.</_></rects>
      <tilted>0</tilted></_>
    <_>
      <rects>
        <_>
          2 3 6 6 -1.</_>
        <_>
          2 3 3 3 2.</_>
        <_>
          5 6 3 3 2.</_></rects>
      <tilted>0</tilted></_>
    <_>
      <rects>
        <_>
          3 4 12 4 -1.</_>
        <_>
          9 4 6 4 2.</_></rects>
      <tilted>0</tilted></_>
    <_>
      <rects>
        <_>
          3 6 10 9 -1.</_>
        <_>
          8 6 5 9 2.</_></rects>
      <tilted>0</tilted></_>
    <_>
      <rects>
        <_>
          3 8 4 3 -1.</_>
        <_>
          5 8 2 3 2.</_></rects>
      <tilted>0</tilted></_>
    <_>
      <rects>
        <_>
          3 8 8 5 -1.</_>
        <_>
          7 8 4 5 2.</_></rects>
      <tilted>0</tilted></_>
    <_>
      <rects>
        <_>
          3 9 4 2 -1.</_>
        <_>
          5 9 2 2 2.</_></rects>
      <tilted>0</tilted></_>
    <_>
      <rects>
        <_>
          3 10 3 2 -1.</_>
        <_>
          3 11 3 1 2.</_></rects>
      <tilted>0</tilted></_>
    <_>
      <rects>
        <_>
          3 10 15 1 -1.</_>
        <_>
          8 10 5 1 3.</_></rects>
      <tilted>0</tilted></_>
    <_>
      <rects>
        <_>
          3 11 10 1 -1.</_>
        <_>
          8 11 5 1 2.</_></rects>
      <tilted>0</tilted></_>
    <_>
      <rects>
        <_>
          3 11 10 2 -1.</_>
        <_>
          3 11 5 1 2.</_>
        <_>
          8 12 5 1 2.</_></rects>
      <tilted>0</tilted></_>
    <_>
      <rects>
        <_>
          3 11 15 3 -1.</_>
        <_>
          8 11 5 3 3.</_></rects>
      <tilted>0</tilted></_>
    <_>
      <rects>
        <_>
          3 11 14 2 -1.</_>
        <_>
          10 11 7 2 2.</_></rects>
      <tilted>0</tilted></_>
    <_>
      <rects>
        <_>
          4 4 9 10 -1.</_>
        <_>
          4 9 9 5 2.</_></rects>
      <tilted>0</tilted></_>
    <_>
      <rects>
        <_>
          4 10 12 1 -1.</_>
        <_>
          8 10 4 1 3.</_></rects>
      <tilted>0</tilted></_>
    <_>
      <rects>
        <_>
          5 0 11 12 -1.</_>
        <_>
          5 4 11 4 3.</_></rects>
      <tilted>0</tilted></_>
    <_>
      <rects>
        <_>
          5 1 10 2 -1.</_>
        <_>
          5 2 10 1 2.</_></rects>
      <tilted>0</tilted></_>
    <_>
      <rects>
        <_>
          5 4 7 10 -1.</_>
        <_>
          5 9 7 5 2.</_></rects>
      <tilted>0</tilted></_>
    <_>
      <rects>
        <_>
          5 7 2 5 -1.</_>
        <_>
          6 7 1 5 2.</_></rects>
      <tilted>0</tilted></_>
    <_>
      <rects>
        <_>
          5 8 6 3 -1.</_>
        <_>
          7 8 2 3 3.</_></rects>
      <tilted>0</tilted></_>
    <_>
      <rects>
        <_>
          5 10 3 4 -1.</_>
        <_>
          6 10 1 4 3.</_></rects>
      <tilted>0</tilted></_>
    <_>
      <rects>
        <_>
          5 12 10 1 -1.</_>
        <_>
          10 12 5 1 2.</_></rects>
      <tilted>0</tilted></_>
    <_>
      <rects>
        <_>
          5 13 9 1 -1.</_>
        <_>
          8 13 3 1 3.</_></rects>
      <tilted>0</tilted></_>
    <_>
      <rects>
        <_>
          5 16 4 4 -1.</_>
        <_>
          5 18 4 2 2.</_></rects>
      <tilted>0</tilted></_>
    <_>
      <rects>
        <_>
          6 4 4 1 -1.</_>
        <_>
          8 4 2 1 2.</_></rects>
      <tilted>0</tilted></_>
    <_>
      <rects>
        <_>
          6 4 5 12 -1.</_>
        <_>
          6 8 5 4 3.</_></rects>
      <tilted>0</tilted></_>
    <_>
      <rects>
        <_>
          6 5 6 8 -1.</_>
        <_>
          9 5 3 8 2.</_></rects>
      <tilted>0</tilted></_>
    <_>
      <rects>
        <_>
          6 8 2 2 -1.</_>
        <_>
          7 8 1 2 2.</_></rects>
      <tilted>0</tilted></_>
    <_>
      <rects>
        <_>
          7 4 4 1 -1.</_>
        <_>
          9 4 2 1 2.</_></rects>
      <tilted>0</tilted></_>
    <_>
      <rects>
        <_>
          7 4 4 10 -1.</_>
        <_>
          9 4 2 10 2.</_></rects>
      <tilted>0</tilted></_>
    <_>
      <rects>
        <_>
          7 4 7 10 -1.</_>
        <_>
          7 9 7 5 2.</_></rects>
      <tilted>0</tilted></_>
    <_>
      <rects>
        <_>
          7 5 9 8 -1.</_>
        <_>
          10 5 3 8 3.</_></rects>
      <tilted>0</tilted></_>
    <_>
      <rects>
        <_>
          7 7 3 6 -1.</_>
        <_>
          8 7 1 6 3.</_></rects>
      <tilted>0</tilted></_>
    <_>
      <rects>
        <_>
          7 16 4 1 -1.</_>
        <_>
          9 16 2 1 2.</_></rects>
      <tilted>0</tilted></_>
    <_>
      <rects>
        <_>
          8 3 3 4 -1.</_>
        <_>
          8 5 3 2 2.</_></rects>
      <tilted>0</tilted></_>
    <_>
      <rects>
        <_>
          8 4 3 1 -1.</_>
        <_>
          9 4 1 1 3.</_></rects>
      <tilted>0</tilted></_>
    <_>
      <rects>
        <_>
          8 4 4 1 -1.</_>
        <_>
          10 4 2 1 2.</_></rects>
      <tilted>0</tilted></_>
    <_>
      <rects>
        <_>
          8 11 8 2 -1.</_>
        <_>
          12 11 4 2 2.</_></rects>
      <tilted>0</tilted></_>
    <_>
      <rects>
        <_>
          9 0 4 4 -1.</_>
        <_>
          9 2 4 2 2.</_></rects>
      <tilted>0</tilted></_>
    <_>
      <rects>
        <_>
          9 2 1 12 -1.</_>
        <_>
          9 8 1 6 2.</_></rects>
      <tilted>0</tilted></_>
    <_>
      <rects>
        <_>
          9 3 4 1 -1.</_>
        <_>
          11 3 2 1 2.</_></rects>
      <tilted>0</tilted></_>
    <_>
      <rects>
        <_>
          9 4 2 1 -1.</_>
        <_>
          10 4 1 1 2.</_></rects>
      <tilted>0</tilted></_>
    <_>
      <rects>
        <_>
          9 4 3 1 -1.</_>
        <_>
          10 4 1 1 3.</_></rects>
      <tilted>0</tilted></_>
    <_>
      <rects>
        <_>
          9 4 2 6 -1.</_>
        <_>
          10 4 1 6 2.</_></rects>
      <tilted>0</tilted></_>
    <_>
      <rects>
        <_>
          9 7 2 2 -1.</_>
        <_>
          10 7 1 2 2.</_></rects>
      <tilted>0</tilted></_>
    <_>
      <rects>
        <_>
          9 8 8 6 -1.</_>
        <_>
          9 10 8 2 3.</_></rects>
      <tilted>0</tilted></_>
    <_>
      <rects>
        <_>
          9 9 2 6 -1.</_>
        <_>
          9 12 2 3 2.</_></rects>
      <tilted>0</tilted></_>
    <_>
      <rects>
        <_>
          9 10 1 4 -1.</_>
        <_>
          9 12 1 2 2.</_></rects>
      <tilted>0</tilted></_>
    <_>
      <rects>
        <_>
          9 12 4 2 -1.</_>
        <_>
          11 12 2 2 2.</_></rects>
      <tilted>0</tilted></_>
    <_>
      <rects>
        <_>
          10 2 3 9 -1.</_>
        <_>
          10 5 3 3 3.</_></rects>
      <tilted>0</tilted></_>
    <_>
      <rects>
        <_>
          10 3 1 2 -1.</_>
        <_>
          10 4 1 1 2.</_></rects>
      <tilted>0</tilted></_>
    <_>
      <rects>
        <_>
          10 3 4 1 -1.</_>
        <_>
          12 3 2 1 2.</_></rects>
      <tilted>0</tilted></_>
    <_>
      <rects>
        <_>
          10 4 2 1 -1.</_>
        <_>
          11 4 1 1 2.</_></rects>
      <tilted>0</tilted></_>
    <_>
      <rects>
        <_>
          10 4 1 12 -1.</_>
        <_>
          10 10 1 6 2.</_></rects>
      <tilted>0</tilted></_>
    <_>
      <rects>
        <_>
          10 9 1 6 -1.</_>
        <_>
          10 11 1 2 3.</_></rects>
      <tilted>0</tilted></_>
    <_>
      <rects>
        <_>
          10 14 2 4 -1.</_>
        <_>
          10 16 2 2 2.</_></rects>
      <tilted>0</tilted></_>
    <_>
      <rects>
        <_>
          11 3 1 4 -1.</_>
        <_>
          11 5 1 2 2.</_></rects>
      <tilted>0</tilted></_>
    <_>
      <rects>
        <_>
          11 4 2 1 -1.</_>
        <_>
          12 4 1 1 2.</_></rects>
      <tilted>0</tilted></_>
    <_>
      <rects>
        <_>
          11 5 6 3 -1.</_>
        <_>
          14 5 3 3 2.</_></rects>
      <tilted>0</tilted></_>
    <_>
      <rects>
        <_>
          14 8 2 3 -1.</_>
        <_>
          15 8 1 3 2.</_></rects>
      <tilted>0</tilted></_>
    <_>
      <rects>
        <_>
          15 9 3 3 -1.</_>
        <_>
          16 9 1 3 3.</_></rects>
      <tilted>0</tilted></_>
    <_>
      <rects>
        <_>
          15 10 3 2 -1.</_>
        <_>
          16 10 1 2 3.</_></rects>
      <tilted>0</tilted></_>
    <_>
      <rects>
        <_>
          16 9 2 2 -1.</_>
        <_>
          17 9 1 2 2.</_></rects>
      <tilted>0</tilted></_>
    <_>
      <rects>
        <_>
          16 9 2 3 -1.</_>
        <_>
          17 9 1 3 2.</_></rects>
      <tilted>0</tilted></_>
    <_>
      <rects>
        <_>
          18 6 2 7 -1.</_>
        <_>
          19 6 1 7 2.</_></rects>
      <tilted>0</tilted></_></features></cascade>
</opencv_storage>
